0.02902232
-0.02366052
-0.00937057
0.01774786
0.02334083
-0.04607906
-0.00011778
-0.06390572
0.00849529
-0.01537053
0.07110783
0.00269028
0.01484719
-0.01235182
0.07745153
-0.00331146
-0.00735251
-0.02750159
0.06304321
0.01327968
0.02629397
0.01295428
0.11026378
0.00208038
0.03705756
0.00909585
0.04500310
-0.03533645
-0.01230257
-0.03158144
0.08950491
0.01975248
-0.02869493
-0.00592807
-0.02912532
-0.01117905
-0.02521568
-0.07303008
0.03716557
-0.04484781
0.02500912
0.00368454
-0.05228155
0.01577839
-0.01478500
0.02918887
-0.02065762
0.06984513
0.05392209
0.03382829
-0.05174312
-0.02325303
-0.01842919
0.08332925
0.02355296
-0.02018893
-0.03051058
0.01855083
0.00230240
-0.01518270
0.02317121
-0.03121176
0.00998742
0.05331368
0.00707780
-0.00516538
0.01752175
-0.02412772
-0.06310153
0.05121231
-0.00973268
-0.04141233
-0.01072726
0.02818344
0.03649706
0.03719712
0.00644624
0.08862569
0.03663733
-0.03153276
-0.03126494
0.05477124
-0.06997373
0.00841150
-0.03219208
0.03629556
0.03747367
0.06461003
0.02891821
0.03319448
-0.03790726
-0.01940550
-0.04865647
0.06508741
0.07407141
-0.01148917
-0.01691248
0.06859901
0.05119954
-0.02407598
0.03524144
-0.05276977
0.01202653
0.03164033
-0.03583980
-0.01271537
0.05450271
0.03573527
-0.06404530
-0.04524759
-0.02754425
0.05301006
0.00766131
0.05325090
0.00891577
-0.04535206
0.00382721
-0.00563747
0.01086522
0.00097928
0.00214422
0.01666236
-0.01801890
0.02063169
0.00618986
-0.07899876
0.06954917
-0.02356276
0.00971555
0.04083351
0.06959157
0.00483581
0.04796822
-0.02000306
0.00038161
0.05836596
0.01812046
0.04282281
0.07206572
-0.04867003
-0.01580701
-0.03822959
-0.00402715
-0.03048316
0.01408832
0.08434978
0.01223447
0.04736341
-0.00883091
-0.01258211
-0.02985426
-0.05563226
-0.03155874
-0.01434719
0.00912682
0.00853360
0.01682228
-0.04442238
0.05674564
-0.00645956
0.03827785
0.05896778
-0.06670859
-0.02594694
0.01825709
-0.01640322
-0.01689277
-0.08033565
-0.04676333
0.02120636
-0.04568486
0.05414692
-0.00823961
0.06538110
0.02789924
0.01144308
-0.03990332
0.06073546
-0.05605647
0.02263376
-0.00978951
0.04471162
-0.05674302
0.01467695
0.02336490
-0.02038683
-0.07788637
0.01723867
0.04066204
0.05400826
0.01949413
-0.06291521
-0.06183545
0.07397342
-0.02902237
0.05101437
0.06054208
0.02457730
0.01501847
-0.08901117
0.02033494
0.08312829
-0.03124934
0.07514589
0.03995545
0.02204620
0.04948536
-0.07225300
-0.02297086
0.01270514
-0.00546543
-0.01032199
0.10715237
0.01296479
-0.00684238
0.03803927
-0.03885648
-0.00310440
0.06673200
0.04602217
0.02660313
-0.05638629
-0.00748310
0.00787767
0.01828664
0.08318060
0.06201306
0.00145599
0.04609863
-0.02840666
0.01752071
-0.07414322
0.04085318
0.01135165
-0.03432971
0.03750372
0.05037446
-0.01620816
-0.02872562
0.01102824
-0.01437421
-0.02188392
0.01103749
0.04264515
0.02015369
-0.00485205
-0.01712296
-0.01825580
0.04117371
0.10301901
0.03298650
0.00861210
-0.01483136
-0.04681607
0.06150192
0.05855270
-0.01066238
-0.00533781
0.04672359
0.03587828
-0.03538876
-0.02096664
0.03184569
-0.01023448
0.01371759
0.00073771
-0.02734727
-0.05467106
-0.06799237
0.04813631
0.02625859
-0.04034903
0.00867743
0.02690268
0.04320773
0.00402081
-0.06024489
0.00917254
-0.03450724
0.01859767
-0.07303814
0.00292608
0.02393722
-0.05184193
-0.07632656
0.02160317
-0.02723130
0.02967448
-0.02091764
0.01132702
-0.03743393
-0.00670477
-0.02014480
0.09386805
-0.05798954
0.04530429
-0.09106819
0.01238718
-0.04827226
-0.06225044
0.01816754
0.02930598
-0.02550870
-0.00174267
-0.08851483
0.03634765
0.00251471
-0.07743564
0.02589351
0.06695784
0.03688558
0.04483094
-0.08698352
0.00657135
-0.01632207
-0.09495950
0.02558194
-0.01285486
-0.02795140
0.09839840
-0.07962299
0.00552212
0.07147578
-0.03327638
-0.04825892
0.01056002
0.02058358
-0.01640674
-0.03654833
0.02269042
0.03200297
-0.12509029
0.02750253
-0.07104776
-0.09013994
0.03204779
-0.06078734
0.00586177
0.03880712
-0.11420383
-0.04856814
-0.01396364
-0.02468311
0.05272852
-0.08358061
-0.05223783
0.06746729
-0.07106238
0.04885779
-0.04079901
-0.06602766
0.01414089
0.01570712
0.01169058
-0.00466361
-0.08440010
-0.04809116
-0.04579907
-0.02744128
0.07193579
0.01317837
-0.05856957
-0.01562998
-0.11176518
-0.07166775
0.01113608
-0.01118621
-0.01851017
0.06997390
-0.07419200
0.02010894
0.00417009
-0.05488145
0.00723616
-0.01382638
-0.02253791
-0.02588972
0.02162922
-0.04345651
-0.10041663
0.02899473
-0.06341105
0.02515970
0.06524523
0.05871945
-0.08692247
-0.00700238
-0.06366317
0.00391350
-0.04658594
0.00186700
0.06713033
0.04886267
-0.01139976
-0.04124267
0.00395613
-0.03213353
-0.05213714
-0.08093980
-0.02521456
0.04690131
-0.05941146
0.03024269
0.00005964
0.00276270
0.04115273
0.02990251
0.03372356
0.07652167
-0.07263558
-0.05092631
0.00534595
-0.03573653
-0.03427953
-0.07486085
0.00853603
0.00386407
-0.11111484
0.01253245
0.04823704
-0.00309691
0.03035021
0.03819250
0.05507393
0.03865926
0.01049700
-0.02664429
0.00437696
-0.07999749
0.00615725
-0.04144374
-0.07286017
-0.01931232
-0.08973044
-0.02826094
0.07806671
-0.03198772
0.10024601
-0.01248072
0.00473956
0.03826581
-0.07002926
-0.10819527
-0.00125081
-0.04022961
0.01393385
-0.06564659
-0.01211940
0.02706050
-0.00589359
-0.05380012
0.05456249
0.02514856
0.00312281
-0.06480318
-0.03940309
-0.00436865
-0.05324358
-0.01325163
0.09585427
-0.01738450
0.00488079
-0.00161487
-0.02038694
-0.02712336
-0.04467937
0.01506728
0.07194901
0.08408995
-0.06952058
-0.04505653
-0.06492752
0.07450676
-0.10183752
0.02673489
0.02710316
0.01998860
0.01047148
-0.05785710
-0.01885746
0.01828931
-0.07388790
-0.00933597
0.04381170
0.02506454
-0.05275141
-0.03700550
0.05211008
0.06308999
-0.04867467
0.07032906
0.06532245
0.09304364
0.01518652
-0.06148360
-0.06515673
0.06190531
-0.00866742
-0.02650288
0.09841200
0.08614421
-0.05412932
-0.05467352
-0.07670382
0.04527836
-0.06477718
-0.04219017
0.02431066
-0.01345705
0.04686439
-0.10130523
-0.07909390
0.00410339
0.02436086
-0.02181929
0.03097906
-0.05731062
0.04667072
-0.04795735
-0.02111410
0.09863981
-0.06120032
-0.05700869
0.10093385
-0.04838303
-0.00826785
-0.06914866
0.04574528
0.04050508
-0.04090413
0.00771300
0.03927187
-0.01354284
0.04657222
-0.08869869
-0.05606127
0.01101283
-0.02653054
-0.04795924
0.02309282
-0.00616097
0.05651910
-0.08651391
-0.06204924
0.08125340
-0.06109081
-0.01369518
0.03324007
-0.02897128
-0.03247650
-0.01706734
0.02289075
-0.02197518
0.06223748
-0.00062441
0.02765861
-0.01882941
0.00774618
-0.08218406
0.00660283
0.06111326
-0.06154625
0.07588318
0.05316419
0.02042257
-0.08637885
0.02018077
-0.01764186
-0.02594365
-0.07380036
-0.04061992
0.00098838
-0.02480840
0.01372261
-0.07306264
0.01475889
-0.04673523
0.04439112
-0.09608866
0.03611897
0.04429926
-0.03684874
-0.00949784
-0.03741734
0.02763173
0.04252032
0.03703691
-0.02519653
0.07275303
0.01448809
0.01506075
0.04675093
0.01511643
-0.06077405
0.04387524
0.01619038
0.03962286
0.01420610
0.00473564
-0.00585192
-0.05212487
-0.03233458
-0.03508265
-0.01752765
0.01840204
0.05022678
-0.07303723
0.02225763
0.02472623
-0.06656750
-0.07576562
-0.01136095
0.03929893
0.05028514
0.01233990
0.05277807
0.03338486
-0.00768235
-0.03188460
0.01839218
0.04258535
0.08924931
0.03779264
0.02557967
0.00538196
0.01727878
-0.08586212
-0.04437030
0.04370595
0.00393175
-0.09227540
0.02978483
-0.02909100
-0.02642871
0.05716819
-0.01695301
-0.01620662
-0.02232859
-0.01800059
0.04790124
0.00741528
0.01890936
0.03405494
0.01079511
0.00468227
-0.04903633
-0.05302659
0.00196001
0.00559896
-0.01209508
0.00051330
0.02783352
0.00328639
0.02495947
-0.04854498
0.04336815
0.05479296
-0.04688459
-0.01805672
-0.07868627
0.05488243
0.00605204
-0.08868865
0.06163795
-0.01254247
-0.04907651
0.03299218
0.00881291
0.04392658
-0.05092930
-0.07158127
0.05050093
0.04062282
0.01614150
0.06700850
-0.01004521
-0.05497251
-0.06137983
-0.11783461
0.02895543
0.04023416
-0.05926653
0.02997251
0.01442022
0.00996861
-0.03082788
-0.03426153
0.01192417
-0.02727411
0.01605118
0.07010781
-0.04585247
0.04010420
-0.07778089
-0.03100845
0.06227823
-0.03041606
-0.00281562
-0.01032513
-0.00514525
0.05903034
-0.02093322
-0.05004330
0.05220516
0.04185669
0.00671075
-0.01870432
-0.03281090
0.00722912
-0.04974718
-0.03307843
0.03892069
-0.06814166
0.01692646
0.00445303
0.00017258
0.00737712
-0.01321803
-0.00697726
-0.02944293
-0.01385136
-0.06609055
0.05188917
0.00728225
-0.01729648
0.05154125
0.02149734
0.04890265
-0.06835821
0.04367732
-0.00746006
-0.01572371
-0.00840969
0.08411473
-0.02989054
-0.00459376
-0.07074375
-0.04437748
-0.02796116
0.02600957
-0.01021061
0.07117891
-0.01973451
-0.01596568
-0.09144552
0.03037787
0.04100955
0.00077743
-0.01361446
-0.01559907
-0.02396259
-0.01128059
-0.02951747
-0.05603766
0.02476588
-0.01784935
-0.02276020
-0.01241333
0.02494936
-0.01527721
-0.05367350
0.05088288
0.01307039
0.02657828
-0.06228670
0.04269286
-0.00782100
0.00658465
-0.01534302
0.03503926
0.02954390
0.01399858
-0.07238247
-0.03373465
0.02723306
-0.07244918
0.01589539
0.04904101
-0.05254471
-0.01669668
-0.00992354
-0.04956787
-0.05150959
-0.02945166
-0.05195218
-0.03899725
0.00232013
-0.03023455
-0.03948865
-0.04266619
0.01604430
-0.05611483
-0.02391810
0.03758936
0.03016431
0.01038623
-0.04566353
-0.02008708
-0.02298698
0.00778695
0.05643690
0.06452122
-0.09257238
-0.03197820
-0.07172295
-0.01432661
-0.03361820
-0.04327264
0.01823794
0.05762306
0.00084755
-0.01392805
-0.01057452
0.01262478
-0.05713157
-0.04860267
0.06376179
-0.00577053
0.02587200
-0.08333389
-0.01854969
0.03695891
0.04011369
-0.03994176
0.01921619
0.05553927
-0.00333270
-0.00553701
-0.01038419
0.03803398
-0.04391370
-0.01930790
0.01487203
0.03101176
-0.05801177
-0.08319446
0.02033507
0.07644247
-0.05251503
-0.03425429
0.04045334
0.07194297
0.04862076
0.03080524
-0.02370649
-0.02198238
0.05002066
0.01948559
-0.02372219
0.00688735
0.04704476
-0.07880364
0.06893299
-0.02336303
-0.01281755
0.01309234
0.03348178
0.04588002
-0.05050440
-0.05133567
0.01727289
0.00321828
-0.05459452
-0.03695282
-0.06847330
0.04898137
-0.03436511
0.02431245
0.04768069
-0.00629136
-0.00885082
-0.03172117
0.00416028
0.00649422
0.01767569
-0.04974925
0.05696159
0.04111238
0.05207415
-0.06859898
-0.05973378
0.04602382
-0.02338518
-0.00376706
0.08036422
-0.04602822
-0.03040434
0.03764580
-0.00343536
0.04348964
0.03610879
-0.00245425
0.03173534
0.07005368
0.04076296
0.04964131
-0.07273563
-0.00136002
0.06252579
-0.01753012
0.02342973
-0.00984838
0.00212922
0.04505810
-0.05497842
0.08211295
-0.00748192
0.02276944
-0.01457018
0.06668346
-0.03076740
0.03087539
-0.05432587
-0.01135915
0.04102115
0.04264551
-0.02503707
-0.02935256
-0.01710827
0.00694607
-0.01786801
0.02085434
-0.01518758
-0.00202184
-0.00548257
-0.05190382
0.00999946
-0.03091157
0.01021254
-0.00239473
0.01913293
-0.01931490
0.00937518
0.03395587
-0.01777225
0.05301021
-0.03444756
0.07102825
-0.02081322
0.01564033
-0.00872832
-0.05775206
0.07149818
0.06071557
0.05442326
-0.03786530
0.09037919
0.05547480
-0.01270670
-0.03287566
-0.03549490
-0.05522443
0.03666588
0.00359309
0.03518759
-0.02159405
0.01567693
-0.06755538
0.03442483
-0.03015075
0.04166037
-0.01948566
-0.01753879
0.01121387
-0.03759193
-0.01312602
0.00694860
0.07948643
0.04319764
0.00761775
-0.03231230
0.02950212
-0.04346562
-0.02664944
0.02530633
-0.02182651
0.05190031
0.01340591
0.04986026
0.04373460
0.04784155
0.05667698
0.05779589
-0.05544945
-0.01380954
0.01411982
-0.07657003
0.00955800
-0.06028778
0.00522006
0.03953285
0.02745969
0.03434891
-0.00646708
-0.05042624
-0.01027897
-0.03556449
0.07459641
0.05614138
-0.00022978
-0.01075809
-0.03454858
-0.04130927
0.02565348
-0.03019186
-0.04707797
-0.01605724
0.02571587
-0.00121306
-0.00091001
-0.02915576
0.05909684
0.04068322
0.04867927
-0.01003695
-0.03889904
-0.00210060
-0.04231640
0.06958199
-0.00486349
0.00290693
-0.01583043
0.01854570
0.00828055
1.06104088
1.01401496
1.07067311
1.14052498
1.01975334
1.02829254
1.08487475
0.93433321
0.00406138
-0.00103104
0.00480333
0.00532728
-0.00793108
-0.00511710
-0.00069989
-0.00353834
0.00000311
-0.00001175
-0.00000469
0.00000225
0.00000277
-0.00000126
-0.00011392
0.00000600
0.00026258
0.00081707
0.00009273
0.00039366
0.00012667
0.00005733
0.00099909
0.00017985
-0.10527381
-0.05734785
-0.10738280
-0.21836217
-0.01370245
0.09724443
0.02019291
0.04089333
0.13058989
-0.08010573
0.03986469
0.09778699
0.10887550
-0.08074963
0.08144756
0.17639771
0.07712737
-0.17029649
0.03280043
0.01135115
-0.17208764
0.01835610
0.10252748
-0.20757501
0.12429612
0.10634921
0.08663491
-0.10640029
0.03535797
0.04309927
0.12034275
0.02914286
0.14523424
0.26463801
0.10880686
0.16454335
0.11429406
0.12623157
0.19905445
-0.06777200
0.13784519
-0.13182677
0.04588321
-0.10812435
-0.01744259
-0.03103365
-0.02651522
0.16191700
0.13854288
-0.01033256
0.02839667
-0.04713111
0.09173283
-0.05903784
-0.23761648
-0.07634296
-0.11059932
0.02179152
-0.04355022
-0.05649183
0.09651484
0.13795196
-0.03069083
0.18525198
-0.08566995
-0.01463334
-0.17474651
-0.12908565
0.00944032
0.00773258
0.02175006
0.14297567
-0.03747003
0.03860692
0.01278322
-0.05150942
-0.00950771
-0.13052033
-0.04572804
-0.04348264
0.05764833
0.02249450
0.03087394
0.03022485
-0.08375339
0.12500922
-0.04812888
-0.02539613
0.06489673
-0.00662853
0.09443416
-0.00102446
0.08891601
-0.02319450
-0.07188167
0.07248127
-0.02921677
0.08996591
0.16959329
-0.06355671
0.02460464
0.08425569
-0.07617927
-0.08895788
-0.04591173
0.11105210
0.12621549
-0.17492026
0.14236276
-0.04871173
-0.04478517
0.03165030
0.24244197
0.18156283
0.01075208
-0.03027252
-0.30832136
-0.31989506
0.12674923
-0.03328883
0.30146143
0.07596294
0.13169786
-0.19374213
-0.11281828
0.24243955
0.04347415
-0.14609799
-0.09492322
-0.01323241
0.26892161
0.06212861
-0.06892636
0.03170480
0.02552944
-0.07802312
-0.06209510
-0.11616864
-0.00073180
-0.07953618
0.00805151
-0.19052762
-0.15253159
0.01428181
0.11868273
0.14414774
0.01672717
0.06064805
0.03182349
0.07055293
-0.06281582
0.15315962
-0.06618103
-0.00201505
0.03381583
-0.14173910
0.01973960
-0.07309140
0.00343120
-0.00389892
-0.01060917
-0.20198268
-0.14078523
0.06186057
0.01050767
-0.08648523
0.10699560
0.02453816
-0.10906133
0.06650564
0.01290253
0.04280604
0.08891753
-0.00073903
-0.30008474
0.12578380
-0.07485695
-0.03681041
0.12589069
0.07453424
0.00060621
0.07732129
-0.11947089
-0.04614350
-0.20083994
-0.16241285
-0.10383222
-0.01378517
0.07312965
-0.06790022
0.16713299
-0.00374027
0.24178708
0.07336823
-0.01734420
0.07347190
-0.17979941
-0.11931725
-0.05781956
0.04032082
0.04687876
0.03285417
0.04030462
0.05365653
-0.19019279
0.00133593
-0.07176064
-0.14319970
0.14223722
0.07004610
-0.06205653
0.19343504
0.03252039
-0.00689826
-0.05315814
-0.20415793
-0.08307575
0.00547906
0.23457268
0.10122093
0.16277081
-0.06774173
0.15018174
-0.03053092
-0.12273727
-0.16587709
-0.11220684
-0.06598286
0.06509123
-0.10570652
-0.09010495
-0.03104572
-0.04569133
-0.18748644
0.23718607
0.16410227
0.02458605
-0.00042100
-0.02853942
-0.09249476
-0.27274090
-0.12405435
0.01963198
-0.15825631
0.03719621
-0.16069114
0.19900788
-0.02230635
-0.04013832
-0.04592475
0.13807231
0.16611852
0.02549646
0.16462037
-0.00854725
-0.00813272
-0.05888483
-0.00677410
-0.05996776
-0.03128958
-0.00016672
-0.16131882
0.08713128
-0.03905989
0.04518675
0.09752191
0.00805161
0.05520524
0.13255724
0.09838716
0.14865850
0.09834234
0.06929089
0.05908825
0.06225799
-0.03900748
-0.04782930
-0.00587628
0.09338624
0.11566420
-0.00047750
0.06049332
0.18836841
0.01549071
-0.08064094
0.10152964
-0.18942481
-0.10633320
1.01831436
1.17455840
1.07997584
1.05772614
1.06272519
1.07313788
1.22279632
0.91616642
1.09318399
1.05080938
1.15730000
1.12104344
1.05931115
1.01537287
1.07078266
1.04550982
-0.28358516
-0.35852206
-0.39739642
-0.32413819
-0.25465602
-0.58121383
-0.33791745
0.10475282
-0.34310105
-0.27448300
-0.38405123
-0.37433416
-0.52412128
-0.40569213
-0.36284837
-0.44184715
0.00146565
0.00035603
-0.00028696
0.00022129
-0.00218510
-0.00182960
0.00126458
-0.00215494
-0.00037444
0.00091849
-0.00612709
0.00110791
-0.00017530
0.00051387
0.00095621
-0.00119661
0.08267698
0.05273055
0.08184075
0.06718880
0.02044835
0.01768769
0.05311392
0.04594966
0.01681518
0.01634683
0.01079468
0.00610863
0.11256296
0.17020446
0.03375125
0.01255294
-0.02995015
-0.12748791
-0.00489387
0.04185769
-0.01136674
0.06001143
-0.08103511
-0.06178436
-0.06394009
0.09212034
-0.13129036
0.05286585
0.01389622
-0.09878730
-0.11472322
-0.03744397
-0.00180181
-0.07093985
0.09374467
0.04972769
0.18537185
0.12012047
-0.07318126
-0.07773883
-0.09437419
0.03711582
0.00766581
0.05244435
-0.01977393
-0.12056247
0.00762106
-0.11751632
0.03242740
-0.07252175
0.02046112
0.00884938
0.05426422
0.02174678
-0.10921851
-0.07110029
0.01064406
0.07446205
-0.10854858
0.03298264
-0.12001546
0.10485812
-0.09874130
-0.07933342
0.04381282
-0.01684555
-0.02384686
-0.06222561
0.01790030
0.12323022
-0.06300581
-0.02704347
-0.12491043
0.08523557
-0.11162074
0.07310431
-0.08869930
-0.03588481
0.03355647
-0.02099047
0.00229023
-0.08871853
0.06025109
0.08093531
0.00994564
0.03555721
-0.00812631
-0.09488354
-0.05748492
0.11046538
-0.12308539
0.09022334
-0.09567042
-0.08987410
-0.06443784
-0.00496491
0.06833796
-0.06710090
0.10376600
0.16479483
0.03324170
0.11394999
-0.18828075
-0.01253371
-0.09087664
0.09438080
-0.06307888
0.02972669
0.09228010
-0.07251310
-0.13788497
-0.19603841
-0.00930028
-0.02909785
-0.04663586
0.00675357
0.14065906
0.01798110
-0.02170905
-0.10578129
-0.06436063
0.10939811
-0.14080445
0.08346844
-0.00957778
0.00467224
-0.03551886
-0.09027378
0.03584445
-0.03474106
0.03886621
-0.02955878
-0.06179842
-0.00969747
-0.14022054
-0.03223635
-0.07066377
0.12545812
-0.15223910
0.15338595
0.07044324
-0.02654753
-0.13776398
-0.07563163
-0.00479800
-0.15744931
-0.05758047
0.07472093
-0.01502430
0.10179717
-0.08604530
-0.18864113
-0.06641131
0.10727861
-0.10124727
0.06023805
0.04106947
0.02919681
-0.11849861
-0.03914630
0.07245213
-0.03136884
0.03825201
-0.02690562
0.15124908
0.09864734
-0.12055928
-0.01578386
-0.06216193
0.13482699
-0.12555175
0.09695657
-0.04349380
0.05467226
-0.07817941
-0.21591640
-0.06207146
-0.04367979
0.09407239
0.05004269
-0.05911196
0.09646906
-0.06705154
-0.01990462
-0.02605803
0.07916940
-0.15750909
0.10316802
-0.11705787
-0.01230961
-0.11829867
-0.08100635
0.15370850
-0.09867630
-0.01959668
0.11707342
0.14315034
0.09986505
-0.05413675
-0.06167705
-0.14705652
0.10104891
-0.06091895
0.04359815
0.09126679
-0.03196639
-0.04789115
0.03352604
-0.06058935
-0.09970041
0.09182210
-0.05961072
0.05738781
0.01628911
-0.09452209
-0.07211106
-0.02014228
0.08364250
-0.10924732
0.11526034
0.01370680
0.01368292
-0.14232056
-0.10938068
0.07148325
0.00202508
-0.08083801
-0.01022030
-0.04484024
0.07614298
-0.04771591
-0.01846610
-0.10618538
0.11041230
-0.08005294
0.04445528
-0.07219190
-0.16724704
-0.03674441
-0.06709128
0.00985138
-0.03634600
0.08498308
0.13112302
0.00768010
0.02312821
-0.08138208
-0.11353747
-0.01534964
0.04846597
-0.04333230
0.06371187
-0.09428806
-0.05240714
-0.11782125
-0.08483533
0.07601701
-0.08927693
0.07867745
-0.02006260
0.15350024
0.21631396
-0.10235231
0.00795405
-0.09463058
0.12173788
-0.10976712
0.03470325
-0.09183237
0.04794028
-0.05000755
-0.01140680
0.17127028
-0.16193657
-0.12831652
0.26388812
0.04518692
0.35665089
-0.30047131
-0.14568278
0.14845321
0.32582718
0.43806323
0.07209887
0.10089234
0.32256788
0.08018176
0.10603432
-0.17057711
0.14810367
0.25590631
-0.29904580
0.33558488
-0.09013031
-0.00875681
0.09402147
-0.06062130
-0.11336063
-0.04855342
0.28551054
0.32647517
-0.10030102
0.33683339
0.24893610
-0.14841124
-0.39042619
-0.22441913
0.27648306
-0.36979434
0.31914601
0.02652976
-0.23524253
-0.16220944
0.33983952
0.42849737
-0.35516664
-0.39118963
0.04882929
-0.39397460
-0.36498994
0.37427011
0.03213804
-0.11149658
-0.10408426
-0.00433512
0.28516740
0.49477664
0.29621860
0.38820899
0.21951291
0.27695975
0.08343513
-0.20275220
0.22997001
-0.08003162
0.15050133
0.17825447
-0.15039608
-0.04462285
0.17692919
-0.00022543
0.18540582
0.40665883
0.19470553
0.33650070
0.29644448
0.00583651
-0.17583741
0.22958793
-0.04578612
-0.33385003
-0.29821116
-0.19256857
0.33149594
0.26562136
-0.00370702
0.26292831
-0.36186254
0.05886190
-0.10640647
-0.29956999
-0.45122635
-0.47695452
0.30778423
0.01698445
-0.33054209
0.39007515
0.29120058
-0.08918264
0.52512211
-0.01572626
-0.16717060
0.20311804
-0.06874479
-0.08824483
-0.49969703
-0.17948876
-0.25542405
-0.04107811
0.28875312
0.17291963
-0.31456599
0.01629333
0.25680709
0.18521023
0.12039588
-0.31355876
0.05170220
0.06777424
0.27858049
0.46348360
0.32182616
0.23242354
-0.12309480
0.26560178
0.08725673
-0.20969014
0.25357461
-0.05051577
-0.02068097
0.12597021
-0.07071210
0.28131130
0.10713057
0.48988351
0.04082427
-0.10267267
0.10921987
-0.09265170
-0.22065881
-0.26815122
0.22287567
0.27966794
0.11946845
0.13710816
0.34349829
-0.19265017
0.08529148
0.00736779
-0.50416178
0.14272928
-0.23461021
0.05761583
-0.39774776
-0.42018348
-0.08167081
0.17300196
0.05919078
0.46549633
-0.43262756
0.14263459
0.12208329
-0.17545323
0.31445846
0.47562969
-0.08376738
-0.05451434
-0.25295314
-0.27163681
-0.23458548
-0.15903133
0.33954808
-0.07526645
0.24325387
0.21489631
-0.36535373
0.36041009
-0.01398127
0.25741887
0.12610932
-0.17352553
0.42681411
-0.31834155
0.16726081
-0.08578455
0.36517730
0.28681353
0.35455608
-0.06182764
0.07229032
-0.35967234
0.15349869
0.01903360
-0.42275354
0.25657541
0.18105704
-0.39415586
0.07299934
-0.11794890
0.15016869
0.22861947
0.44563505
0.14948234
-0.01043746
-0.10142508
0.08870329
-0.29670981
0.34475130
0.13243087
-0.18232021
0.12371653
-0.23401907
0.12283949
0.30429906
0.05593963
0.44705322
-0.07454899
-0.26101539
0.11723919
-0.02959326
0.43737414
0.01551564
0.01693885
0.00819605
0.22154966
0.01213679
0.04718251
-0.06958729
0.04992920
0.29331955
-0.11165264
0.02101544
0.32424897
0.33384526
0.36433256
0.46642956
0.40161270
-0.02134754
-0.18006946
0.29012376
-0.40190819
0.03944729
0.42442867
-0.27082807
-0.43529513
0.51034933
-0.17471349
0.28679928
-0.05213143
0.34776703
0.01193813
-0.05863647
-0.03251934
-0.36290088
0.07712054
0.11262479
0.18462372
-0.32940930
1.29308045
1.74891579
1.73534989
1.23285842
1.77606976
1.33027184
0.94825631
1.23061860
1.30843627
0.92600650
1.03462982
1.63038456
1.84120166
1.29238999
1.52935493
1.86160970
-0.10551678
0.17285728
0.19486380
-0.10552105
0.17975214
-0.10387684
-0.08115658
-0.11131766
-0.09820648
-0.06165315
-0.10186762
0.00006749
0.22161201
-0.10697795
0.17291701
0.22400446
0.07873119
-0.05229634
0.08633775
0.09980627
0.02453191
0.06008248
-0.16318876
0.04605895
0.04662410
0.11819469
0.05480446
-0.02968363
0.17306346
0.06968249
0.05535784
0.02273660
0.03067379
0.08152429
0.06851105
0.07181390
0.07642042
0.03169791
0.04839093
0.08350702
0.04758126
0.07167617
0.04848574
0.06978243
0.06874461
0.05814073
0.07949664
0.08041410
1.02395260
-0.82274139
-0.67309338
0.40863478
-0.77914512
1.04333293
0.58579749
0.82928854
0.75502491
0.24213128
0.36568055
-0.55368817
-0.60216469
0.61561441
-0.59382069
-0.51994771
-0.14489266